{"learner":{"attributes":{"best_iteration":"32","best_score":"0.9486875250994853"},"feature_names":["Age","Gender","Course_Chosen","Residence_Location","Semester_Average_Grade","Parental_Income_Level","Attendance","Marital_Status","Course_Failures","Financial_Stress","Attendance_Compliance","Rural_Disadvantage"],"feature_types":["int","int","int","int","float","int","int","int","int","float","int","int"],"gradient_booster":{"model":{"gbtree_model_param":{"num_parallel_tree":"1","num_trees":"43"},"iteration_indptr":[0,1,2,3,4,5,6,7,8,9,10,11,12,13,14,15,16,17,18,19,20,21,22,23,24,25,26,27,28,29,30,31,32,33,34,35,36,37,38,39,40,41,42,43],"tree_info":[0,0,0,0,0,0,0,0,0,0,0,0,0,0,0,0,0,0,0,0,0,0,0,0,0,0,0,0,0,0,0,0,0,0,0,0,0,0,0,0,0,0,0],"trees":[{"base_weights":[-1.1633601E-3,1.2657818E0,-1.0751129E0,1.128683E0,1.9613828E-1,-1.5848871E0,1.9637352E-1,1.0029523E0,1.2108597E0,-5.4200643E-1,-1.5913894E0,9.411775E-2,1.5213302E-1,8.876056E-3,1.21803336E-1,3.1891465E-3,-1E-1,-1.6520083E-1,-1.4318421E-1],"categories":[],"categories_nodes":[],"categories_segments":[],"categories_sizes":[],"default_left":[0,0,0,0,0,0,0,0,0,0,0,0,0,0,0,0,0,0,0],"id":0,"left_children":[1,3,5,7,-1,9,-1,11,13,15,17,-1,-1,-1,-1,-1,-1,-1,-1],"loss_changes":[9.5733136E2,2.8569641E1,5.93018E2,1.5959167E0,0E0,1.352417E0,0E0,2.197441E0,1.1771545E0,9.624847E-1,7.692261E-1,0E0,0E0,0E0,0E0,0E0,0E0,0E0,0E0],"parents":[2147483647,0,0,1,1,2,2,3,3,5,5,7,7,8,8,9,9,10,10],"right_children":[2,4,6,8,-1,10,-1,12,14,16,18,-1,-1,-1,-1,-1,-1,-1,-1],"split_conditions":[1E0,5E0,5E0,2E0,1.9613828E-1,6.3384614E3,1.9637352E-1,4.995345E4,1.02E0,1E0,3.14E0,9.411775E-2,1.5213302E-1,8.876056E-3,1.21803336E-1,3.1891465E-3,-1E-1,-1.6520083E-1,-1.4318421E-1],"split_indices":[10,8,8,8,0,9,0,9,4,11,4,0,0,0,0,0,0,0,0],"split_type":[0,0,0,0,0,0,0,0,0,0,0,0,0,0,0,0,0,0,0],"sum_hessian":[7.015913E2,3.217923E2,3.79799E2,2.71002E2,5.0790287E1,3.2564905E2,5.4149956E1,1.123346E2,1.5866742E2,2.5405102E0,3.2310855E2,1.0288899E2,9.445613E0,1.0928828E0,1.5757452E2,1.5405103E0,1E0,2.2736751E2,9.574105E1],"tree_param":{"num_deleted":"0","num_feature":"12","num_nodes":"19","size_leaf_vector":"1"}},{"base_weights":[2.3843145E-2,1.8732809E-1,-1.0163335E0,-1.336303E0,-9.533539E-1,1.9620728E-2,-1.3674406E0,-9.62459E-1,4.455391E-1,-1.4030348E-1,-9.942605E-3,-8.073495E-2,-1.03134505E-1,5.7885367E-2,1.0188018E-2],"categories":[],"categories_nodes":[],"categories_segments":[],"categories_sizes":[],"default_left":[0,0,0,0,0,0,0,0,0,0,0,0,0,0,0],"id":1,"left_children":[1,-1,3,5,7,-1,9,11,13,-1,-1,-1,-1,-1,-1],"loss_changes":[1.3418724E3,0E0,7.7227783E0,3.6532059E0,5.22464E0,0E0,3.003952E0,3.1677856E0,8.389616E-2,0E0,0E0,0E0,0E0,0E0,0E0],"parents":[2147483647,0,0,2,2,3,3,4,4,6,6,7,7,8,8],"right_children":[2,-1,4,6,8,-1,10,12,14,-1,-1,-1,-1,-1,-1],"split_conditions":[7E1,1.8732809E-1,7.5E1,7.2619443E3,1.49445E5,1.9620728E-2,1.46213E5,5.9372E4,2.5E1,-1.4030348E-1,-9.942605E-3,-8.073495E-2,-1.03134505E-1,5.7885367E-2,1.0188018E-2],"split_indices":[6,0,6,9,5,0,5,5,0,0,0,0,0,0,0],"split_type":[0,0,0,0,0,0,0,0,0,0,0,0,0,0,0],"sum_hessian":[6.9554285E2,2.5008676E2,4.4545605E2,6.99344E1,3.7552167E2,1.2870682E0,6.864733E1,3.7340323E2,2.1184256E0,6.6669395E1,1.9779404E0,1.1874568E2,2.5465755E2,1.0332253E0,1.0852003E0],"tree_param":{"num_deleted":"0","num_feature":"12","num_nodes":"15","size_leaf_vector":"1"}},{"base_weights":[1.4081416E-2,1.0623049E0,-8.955369E-1,9.401135E-1,1.6829467E-1,-1.3777959E0,1.8678725E-1,8.4871584E-1,1.0827608E0,-4.531415E-1,-1.3837746E0,9.237229E-2,6.116983E-2,1.1073889E-1,2.7539445E-2,-6.661523E-2,-5.927415E-3,-1.3869616E-1,-2.7003339E-2],"categories":[],"categories_nodes":[],"categories_segments":[],"categories_sizes":[],"default_left":[0,0,0,0,0,0,0,0,0,0,0,0,0,0,0,0,0,0,0],"id":2,"left_children":[1,3,5,7,-1,9,-1,11,13,15,17,-1,-1,-1,-1,-1,-1,-1,-1],"loss_changes":[6.635784E2,2.2938599E1,4.991555E2,2.6326447E0,0E0,1.1300049E0,0E0,2.4689407E0,1.7381973E0,2.5657088E-1,7.445679E-1,0E0,0E0,0E0,0E0,0E0,0E0,0E0,0E0],"parents":[2147483647,0,0,1,1,2,2,3,3,5,5,7,7,8,8,9,9,10,10],"right_children":[2,4,6,8,-1,10,-1,12,14,16,18,-1,-1,-1,-1,-1,-1,-1,-1],"split_conditions":[1E0,5E0,5E0,3E0,1.6829467E-1,6.3384614E3,1.8678725E-1,3E0,5.6974E4,1E0,1.49445E5,9.237229E-2,6.116983E-2,1.1073889E-1,2.7539445E-2,-6.661523E-2,-5.927415E-3,-1.3869616E-1,-2.7003339E-2],"split_indices":[10,8,8,8,0,9,0,2,9,7,5,0,0,0,0,0,0,0,0],"split_type":[0,0,0,0,0,0,0,0,0,0,0,0,0,0,0,0,0,0,0],"sum_hessian":[6.9395416E2,3.223349E2,3.7161926E2,2.7141394E2,5.0920948E1,3.1682895E2,5.47903E1,1.6965901E2,1.0175495E2,2.5287664E0,3.143002E2,1.266742E2,4.2984806E1,9.838227E1,3.3726768E0,1.1925188E0,1.3362474E0,3.1315878E2,1.1414052E0],"tree_param":{"num_deleted":"0","num_feature":"12","num_nodes":"19","size_leaf_vector":"1"}},{"base_weights":[5.3701038E-3,9.570133E-1,-8.179167E-1,8.432139E-1,1.5700829E-1,-1.248339E0,1.7155473E-1,7.3426324E-1,1.0212148E0,-1.2559168E0,3.3519994E-2,8.176781E-2,5.6466646E-2,1.1245742E-1,6.954447E-2,-1.1651724E-1,-1.31482E-1],"categories":[],"categories_nodes":[],"categories_segments":[],"categories_sizes":[],"default_left":[0,0,0,0,0,0,0,0,0,0,0,0,0,0,0,0,0],"id":3,"left_children":[1,3,5,7,-1,9,-1,11,13,15,-1,-1,-1,-1,-1,-1,-1],"loss_changes":[5.354415E2,2.07919E1,4.0171204E2,4.477173E0,0E0,4.1864014E0,0E0,1.9538727E0,2.577507E0,1.383667E-1,0E0,0E0,0E0,0E0,0E0,0E0,0E0],"parents":[2147483647,0,0,1,1,2,2,3,3,5,5,7,7,8,8,9,9],"right_children":[2,4,6,8,-1,10,-1,12,14,16,-1,-1,-1,-1,-1,-1,-1],"split_conditions":[1E0,5E0,5E0,3E0,1.5700829E-1,1.49445E5,1.7155473E-1,2E0,1.17987E5,2E0,3.3519994E-2,8.176781E-2,5.6466646E-2,1.1245742E-1,6.954447E-2,-1.1651724E-1,-1.31482E-1],"split_indices":[10,8,8,8,0,5,0,7,5,8,0,0,0,0,0,0,0],"split_type":[0,0,0,0,0,0,0,0,0,0,0,0,0,0,0,0,0],"sum_hessian":[6.8141943E2,3.159955E2,3.6542392E2,2.685264E2,4.7469093E1,3.1278983E2,5.2634113E1,1.6975066E2,9.8775764E1,3.1150604E2,1.2837658E0,1.11224464E2,5.8526188E1,7.312337E1,2.5652393E1,1.3079236E2,1.807137E2],"tree_param":{"num_deleted":"0","num_feature":"12","num_nodes":"17","size_leaf_vector":"1"}},{"base_weights":[-3.558475E-3,1.5911184E-1,-8.7327486E-1,-1.4304198E0,-7.620045E-1,-5.6306305E-3,-1.4507515E0,-9.893532E-2,-7.745093E-1,-1.4787161E-1,-3.9811395E-2,4.8721384E-2,-3.298889E-2,-7.805925E-2,2.3915002E-2],"categories":[],"categories_nodes":[],"categories_segments":[],"categories_sizes":[],"default_left":[0,0,0,0,0,0,0,0,0,0,0,0,0,0,0],"id":4,"left_children":[1,-1,3,5,7,-1,9,11,13,-1,-1,-1,-1,-1,-1],"loss_changes":[9.252363E2,0E0,2.5671509E1,1.8941193E0,2.924591E0,0E0,1.4615631E0,1.222904E0,2.3763885E0,0E0,0E0,0E0,0E0,0E0,0E0],"parents":[2147483647,0,0,2,2,3,3,4,4,6,6,7,7,8,8],"right_children":[2,-1,4,6,8,-1,10,12,14,-1,-1,-1,-1,-1,-1],"split_conditions":[7E1,1.5911184E-1,7.5E1,7.2619443E3,7.2619443E3,-5.6306305E-3,1.46213E5,2.2E1,1.49445E5,-1.4787161E-1,-3.9811395E-2,4.8721384E-2,-3.298889E-2,-7.805925E-2,2.3915002E-2],"split_indices":[6,0,6,9,9,0,5,0,5,0,0,0,0,0,0],"split_type":[0,0,0,0,0,0,0,0,0,0,0,0,0,0,0],"sum_hessian":[6.651156E2,2.3443521E2,4.3068042E2,6.972135E1,3.6095905E2,1.0715367E0,6.864982E1,6.8462877E0,3.5411276E2,6.647895E1,2.1708672E0,1.6214784E0,5.224809E0,3.5222888E2,1.883875E0],"tree_param":{"num_deleted":"0","num_feature":"12","num_nodes":"15","size_leaf_vector":"1"}},{"base_weights":[1.0625687E-2,1.5034442E-1,-8.103273E-1,-1.2083344E0,1.6626112E-1,-1.6041244E0,-1.1158632E0,-3.7031855E-2,-1.6371079E-1,-1.15056925E-1,-7.3056184E-2],"categories":[],"categories_nodes":[],"categories_segments":[],"categories_sizes":[],"default_left":[0,0,0,0,0,0,0,0,0,0,0],"id":5,"left_children":[1,-1,3,5,-1,7,9,-1,-1,-1,-1],"loss_changes":[8.003872E2,0E0,4.167475E2,1.1515198E1,0E0,2.1026E0,3.1440735E0,0E0,0E0,0E0,0E0],"parents":[2147483647,0,0,2,2,3,3,5,5,6,6],"right_children":[2,-1,4,6,-1,8,10,-1,-1,-1,-1],"split_conditions":[7E1,1.5034442E-1,5E0,7.5E1,1.6626112E-1,2.5388E4,3.74E0,-3.7031855E-2,-1.6371079E-1,-1.15056925E-1,-7.3056184E-2],"split_indices":[6,0,8,6,0,5,4,0,0,0,0],"split_type":[0,0,0,0,0,0,0,0,0,0,0],"sum_hessian":[6.510987E2,2.307224E2,4.2037628E2,3.6253882E2,5.7837452E1,6.5564896E1,2.9697394E2,2.0254824E0,6.3539413E1,2.706123E2,2.636161E1],"tree_param":{"num_deleted":"0","num_feature":"12","num_nodes":"11","size_leaf_vector":"1"}},{"base_weights":[2.8530646E-2,1.432543E-1,-7.267373E-1,-1.1004044E0,1.556856E-1,-1.432438E0,-1.0249773E0,-2.1424787E-2,-1.4931731E-1,-1.030186E-1,1.8149292E-2],"categories":[],"categories_nodes":[],"categories_segments":[],"categories_sizes":[],"default_left":[0,0,0,0,0,0,0,0,0,0,0],"id":6,"left_children":[1,-1,3,5,-1,7,9,-1,-1,-1,-1],"loss_changes":[6.592E2,0E0,3.4664844E2,7.246643E0,0E0,4.2598877E0,1.9909668E0,0E0,0E0,0E0,0E0],"parents":[2147483647,0,0,2,2,3,3,5,5,6,6],"right_children":[2,-1,4,6,-1,8,10,-1,-1,-1,-1],"split_conditions":[7E1,1.432543E-1,5E0,7.5E1,1.556856E-1,2.7254E4,1.49445E5,-2.1424787E-2,-1.4931731E-1,-1.030186E-1,1.8149292E-2],"split_indices":[6,0,8,6,0,5,5,0,0,0,0],"split_type":[0,0,0,0,0,0,0,0,0,0,0],"sum_hessian":[6.1966724E2,2.164321E2,4.0323517E2,3.4697702E2,5.6258125E1,6.0900146E1,2.8607687E2,3.1071062E0,5.779304E1,2.849926E2,1.0842519E0],"tree_param":{"num_deleted":"0","num_feature":"12","num_nodes":"11","size_leaf_vector":"1"}},{"base_weights":[6.2572663E-3,-2.3460338E-1,1.410266E-1,-2.405044E-1,8.566399E-2,-1.4613703E-1,-3.1859177E-1,-3.5870936E-2,-9.59043E-3,-3.5411414E-2,-4.989732E-3],"categories":[],"categories_nodes":[],"categories_segments":[],"categories_sizes":[],"default_left":[0,0,0,0,0,0,0,0,0,0,0],"id":7,"left_children":[1,3,-1,5,-1,7,9,-1,-1,-1,-1],"loss_changes":[2.0422916E2,3.5256462E0,0E0,3.737526E0,0E0,2.4682126E0,2.6562824E0,0E0,0E0,0E0,0E0],"parents":[2147483647,0,0,1,1,3,3,5,5,6,6],"right_children":[2,4,-1,6,-1,8,10,-1,-1,-1,-1],"split_conditions":[5E0,1.49445E5,1.410266E-1,2.6165162E4,8.566399E-2,1.58E0,3.3E1,-3.5870936E-2,-9.59043E-3,-3.5411414E-2,-4.989732E-3],"split_indices":[8,5,0,9,0,4,0,0,0,0,0],"split_type":[0,0,0,0,0,0,0,0,0,0,0],"sum_hessian":[6.0194543E2,5.145126E2,8.7432816E1,5.125207E2,1.9919127E0,2.3336914E2,2.7915155E2,4.343254E1,1.899366E2,2.4627518E2,3.287637E1],"tree_param":{"num_deleted":"0","num_feature":"12","num_nodes":"11","size_leaf_vector":"1"}},{"base_weights":[5.7071303E-3,7.7146786E-1,-6.328085E-1,6.8404794E-2,7.7857614E-1,-5.090425E-1,-6.8564475E-1,-5.0676525E-2,5.607229E-2,1.1902229E0,7.6003253E-1,-4.5342597E-1,-1.1653262E-1,-4.29815E-1,-7.223695E-1,3.0301763E-2,1.2591773E-1,4.267887E-2,7.892149E-2,-5.699104E-2,-7.1328515E-3,-7.1846075E-2,-3.9501903E-3,-7.451695E-2,-3.7370015E-2],"categories":[],"categories_nodes":[],"categories_segments":[],"categories_sizes":[],"default_left":[0,0,0,0,0,0,0,0,0,0,0,0,0,0,0,0,0,0,0,0,0,0,0,0,0],"id":8,"left_children":[1,3,5,7,9,11,13,-1,-1,15,17,19,-1,21,23,-1,-1,-1,-1,-1,-1,-1,-1,-1,-1],"loss_changes":[2.9229904E2,1.3051758E0,1.7827606E0,1.3650059E0,1.1488037E0,3.1732426E0,1.8088989E0,0E0,0E0,2.1973515E-1,2.193283E0,4.193348E0,0E0,3.4400992E0,1.2780228E0,0E0,0E0,0E0,0E0,0E0,0E0,0E0,0E0,0E0,0E0],"parents":[2147483647,0,0,1,1,2,2,3,3,4,4,5,5,6,6,9,9,10,10,11,11,13,13,14,14],"right_children":[2,4,6,8,10,12,14,-1,-1,16,18,20,-1,22,24,-1,-1,-1,-1,-1,-1,-1,-1,-1,-1],"split_conditions":[1E0,1.03E0,5.8045E4,8.2507E4,2.4252E4,3.87E0,2E1,-5.0676525E-2,5.607229E-2,1.43E0,1.1337272E4,3.2E0,-1.1653262E-1,3.736815E4,3.8E0,3.0301763E-2,1.2591773E-1,4.267887E-2,7.892149E-2,-5.699104E-2,-7.1328515E-3,-7.1846075E-2,-3.9501903E-3,-7.451695E-2,-3.7370015E-2],"split_indices":[10,4,5,5,5,4,0,0,0,4,9,4,0,9,4,0,0,0,0,0,0,0,0,0,0],"split_type":[0,0,0,0,0,0,0,0,0,0,0,0,0,0,0,0,0,0,0,0,0,0,0,0,0],"sum_hessian":[5.9581104E2,2.7081686E2,3.2499417E2,2.8170142E0,2.6799985E2,1.00414024E2,2.2458014E2,1.2856536E0,1.5313605E0,8.828681E0,2.5917114E2,9.4128075E1,6.2859526E0,2.9786547E1,1.947936E2,1.0257175E0,7.8029633E0,2.2126427E1,2.3704472E2,7.17601E1,2.2367977E1,1.6640083E1,1.3146463E1,1.8177017E2,1.3023416E1],"tree_param":{"num_deleted":"0","num_feature":"12","num_nodes":"25","size_leaf_vector":"1"}},{"base_weights":[6.933081E-3,1.348333E-1,-6.7622393E-1,-1.0010761E0,1.4255813E-1,-1.3182756E0,-9.23755E-1,-2.2162618E-2,-1.3712443E-1,-1.0211332E-1,-8.191582E-2],"categories":[],"categories_nodes":[],"categories_segments":[],"categories_sizes":[],"default_left":[0,0,0,0,0,0,0,0,0,0,0],"id":9,"left_children":[1,-1,3,5,-1,7,9,-1,-1,-1,-1],"loss_changes":[5.2986096E2,0E0,2.6300287E2,6.934967E0,0E0,3.3443985E0,1.9197388E0,0E0,0E0,0E0,0E0],"parents":[2147483647,0,0,2,2,3,3,5,5,6,6],"right_children":[2,-1,4,6,-1,8,10,-1,-1,-1,-1],"split_conditions":[7E1,1.348333E-1,5E0,7.5E1,1.4255813E-1,9.478378E3,2E0,-2.2162618E-2,-1.3712443E-1,-1.0211332E-1,-8.191582E-2],"split_indices":[6,0,8,6,0,9,2,0,0,0,0],"split_type":[0,0,0,0,0,0,0,0,0,0,0],"sum_hessian":[5.7621185E2,1.9410568E2,3.8210617E2,3.3140793E2,5.0698265E1,6.180638E1,2.6960153E2,3.086585E0,5.8719795E1,1.3508073E2,1.345208E2],"tree_param":{"num_deleted":"0","num_feature":"12","num_nodes":"11","size_leaf_vector":"1"}},{"base_weights":[-2.2232244E-2,1.3038696E-1,-6.6579455E-1,-9.623994E-1,1.3644055E-1,-1.2510304E0,-8.9044034E-1,6.988626E-3,-1.2897542E-1,-1.0272012E-1,-7.956769E-2],"categories":[],"categories_nodes":[],"categories_segments":[],"categories_sizes":[],"default_left":[0,0,0,0,0,0,0,0,0,0,0],"id":10,"left_children":[1,-1,3,5,-1,7,9,-1,-1,-1,-1],"loss_changes":[4.690485E2,0E0,2.2411827E2,5.603485E0,0E0,3.265236E0,2.5827332E0,0E0,0E0,0E0,0E0],"parents":[2147483647,0,0,2,2,3,3,5,5,6,6],"right_children":[2,-1,4,6,-1,8,10,-1,-1,-1,-1],"split_conditions":[7E1,1.3038696E-1,5E0,7.5E1,1.3644055E-1,2.5388E4,2.21E0,6.988626E-3,-1.2897542E-1,-1.0272012E-1,-7.956769E-2],"split_indices":[6,0,8,6,0,5,4,0,0,0,0],"split_type":[0,0,0,0,0,0,0,0,0,0,0],"sum_hessian":[5.475873E2,1.7858182E2,3.6900546E2,3.2242612E2,4.6579338E1,6.107326E1,2.6135284E2,1.7164962E0,5.9356762E1,1.0294497E2,1.584079E2],"tree_param":{"num_deleted":"0","num_feature":"12","num_nodes":"11","size_leaf_vector":"1"}},{"base_weights":[-6.292634E-3,6.2781376E-1,-5.2090216E-1,5.425854E-1,1.1779801E-1,-8.1802195E-1,1.3105915E-1,4.532907E-1,6.934827E-1,-8.251784E-1,2.1567104E-2,5.0376844E-2,2.0839958E-2,7.2184645E-2,3.0454246E-3,9.308371E-3,-8.329371E-2],"categories":[],"categories_nodes":[],"categories_segments":[],"categories_sizes":[],"default_left":[0,0,0,0,0,0,0,0,0,0,0,0,0,0,0,0,0],"id":11,"left_children":[1,3,5,7,-1,9,-1,11,13,15,-1,-1,-1,-1,-1,-1,-1],"loss_changes":[1.7069322E2,1.0349083E1,1.581998E2,2.444687E0,0E0,2.020401E0,0E0,1.5208836E0,1.3740959E0,1.8412323E0,0E0,0E0,0E0,0E0,0E0,0E0,0E0],"parents":[2147483647,0,0,1,1,2,2,3,3,5,5,7,7,8,8,9,9],"right_children":[2,4,6,8,-1,10,-1,12,14,16,-1,-1,-1,-1,-1,-1,-1],"split_conditions":[1E0,5E0,5E0,3E0,1.1779801E-1,1.49445E5,1.3105915E-1,1.27081E5,5.6974E4,6.3384614E3,2.1567104E-2,5.0376844E-2,2.0839958E-2,7.2184645E-2,3.0454246E-3,9.308371E-3,-8.329371E-2],"split_indices":[10,8,8,8,0,5,0,5,9,9,0,0,0,0,0,0,0],"split_type":[0,0,0,0,0,0,0,0,0,0,0,0,0,0,0,0,0],"sum_hessian":[5.210877E2,2.3334183E2,2.8774585E2,2.0376242E2,2.9579405E1,2.4805734E2,3.9688522E1,1.3052637E2,7.3236046E1,2.4655212E2,1.5052137E0,1.0734332E2,2.3183054E1,7.014653E1,3.089514E0,1.9736083E0,2.445785E2],"tree_param":{"num_deleted":"0","num_feature":"12","num_nodes":"17","size_leaf_vector":"1"}},{"base_weights":[-6.369168E-3,1.2510665E-1,-5.977732E-1,-8.6016506E-1,1.2720668E-1,-1.1915383E0,-7.668253E-1,-5.3151E-3,-1.2096653E-1,3.5735812E-2,-7.775409E-2],"categories":[],"categories_nodes":[],"categories_segments":[],"categories_sizes":[],"default_left":[0,0,0,0,0,0,0,0,0,0,0],"id":12,"left_children":[1,-1,3,5,-1,7,9,-1,-1,-1,-1],"loss_changes":[3.7925027E2,0E0,1.7126622E2,8.512543E0,0E0,1.2805557E0,3.1760101E0,0E0,0E0,0E0,0E0],"parents":[2147483647,0,0,2,2,3,3,5,5,6,6],"right_children":[2,-1,4,6,-1,8,10,-1,-1,-1,-1],"split_conditions":[7E1,1.2510665E-1,5E0,7.5E1,1.2720668E-1,2.1361E4,6.3384614E3,-5.3151E-3,-1.2096653E-1,3.5735812E-2,-7.775409E-2],"split_indices":[6,0,8,6,0,5,9,0,0,0,0],"split_type":[0,0,0,0,0,0,0,0,0,0,0],"sum_hessian":[5.0797757E2,1.621343E2,3.458433E2,3.0375742E2,4.2085857E1,6.4171455E1,2.3958597E2,1.067445E0,6.310401E1,1.9566989E0,2.3762927E2],"tree_param":{"num_deleted":"0","num_feature":"12","num_nodes":"11","size_leaf_vector":"1"}},{"base_weights":[3.77512E-2,1.2198376E-1,-5.2212775E-1,-7.826981E-1,1.2356124E-1,-1.0771942E0,-7.046396E-1,-5.0683685E-2,-1.1006248E-1,1.0708361E-2,-7.138132E-2],"categories":[],"categories_nodes":[],"categories_segments":[],"categories_sizes":[],"default_left":[0,0,0,0,0,0,0,0,0,0,0],"id":13,"left_children":[1,-1,3,5,-1,7,9,-1,-1,-1,-1],"loss_changes":[3.1708096E2,0E0,1.4989612E2,5.7648163E0,0E0,2.1151733E-1,1.7684402E0,0E0,0E0,0E0,0E0],"parents":[2147483647,0,0,2,2,3,3,5,5,6,6],"right_children":[2,-1,4,6,-1,8,10,-1,-1,-1,-1],"split_conditions":[7E1,1.2198376E-1,5E0,7.5E1,1.2356124E-1,9.478378E3,6.3384614E3,-5.0683685E-2,-1.1006248E-1,1.0708361E-2,-7.138132E-2],"split_indices":[6,0,8,6,0,9,9,0,0,0,0],"split_type":[0,0,0,0,0,0,0,0,0,0,0],"sum_hessian":[4.7713837E2,1.5297652E2,3.2416187E2,2.8279462E2,4.1367233E1,5.6569927E1,2.2622469E2,3.125242E0,5.3444683E1,2.408806E0,2.2381589E2],"tree_param":{"num_deleted":"0","num_feature":"12","num_nodes":"11","size_leaf_vector":"1"}},{"base_weights":[7.27239E-3,1.1929281E-1,-5.229567E-1,-8.8104963E-1,-4.3655488E-1,2.4682945E-2,-9.2220885E-1,-4.429261E-1,4.312999E-2,-9.5133886E-2,-3.8259227E-2,-5.198557E-2,-3.6537383E-2],"categories":[],"categories_nodes":[],"categories_segments":[],"categories_sizes":[],"default_left":[0,0,0,0,0,0,0,0,0,0,0,0,0],"id":14,"left_children":[1,-1,3,5,7,-1,9,11,-1,-1,-1,-1,-1],"loss_changes":[2.856799E2,0E0,9.330757E0,3.0155602E0,1.6007423E0,0E0,5.501213E-1,1.322979E0,0E0,0E0,0E0,0E0,0E0],"parents":[2147483647,0,0,2,2,3,3,4,4,6,6,7,7],"right_children":[2,-1,4,6,8,-1,10,12,-1,-1,-1,-1,-1],"split_conditions":[7E1,1.1929281E-1,7.5E1,2.5388E4,1.49445E5,2.4682945E-2,1.40187E5,2E0,4.312999E-2,-9.5133886E-2,-3.8259227E-2,-5.198557E-2,-3.6537383E-2],"split_indices":[6,0,6,5,5,0,5,2,0,0,0,0,0],"split_type":[0,0,0,0,0,0,0,0,0,0,0,0,0],"sum_hessian":[4.524278E2,1.3941943E2,3.1300836E2,5.9055473E1,2.539529E2,1.9032787E0,5.7152195E1,2.5258818E2,1.3647083E0,5.350107E1,3.651126E0,1.2394002E2,1.2864818E2],"tree_param":{"num_deleted":"0","num_feature":"12","num_nodes":"13","size_leaf_vector":"1"}},{"base_weights":[4.095793E-3,1.16982594E-1,-4.7536454E-1,-7.9754037E-1,-3.986584E-1,1.1524682E-2,-8.196278E-2,-4.5287898E-1,-2.814329E-1,-3.929549E-2,-6.1573382E-2,-3.4505144E-2,3.3047664E-4],"categories":[],"categories_nodes":[],"categories_segments":[],"categories_sizes":[],"default_left":[0,0,0,0,0,0,0,0,0,0,0,0,0],"id":15,"left_children":[1,-1,3,5,7,-1,-1,9,11,-1,-1,-1,-1],"loss_changes":[2.4531377E2,0E0,7.367775E0,1.2800674E0,1.4818535E0,0E0,0E0,1.4314919E0,1.4994941E0,0E0,0E0,0E0,0E0],"parents":[2147483647,0,0,2,2,3,3,4,4,7,7,8,8],"right_children":[2,-1,4,6,8,-1,-1,10,12,-1,-1,-1,-1],"split_conditions":[7E1,1.16982594E-1,7.5E1,7.2619443E3,2E0,1.1524682E-2,-8.196278E-2,9.5E1,4.321478E4,-3.929549E-2,-6.1573382E-2,-3.4505144E-2,3.3047664E-4],"split_indices":[6,0,6,9,1,0,0,6,9,0,0,0,0],"split_type":[0,0,0,0,0,0,0,0,0,0,0,0,0],"sum_hessian":[4.3691077E2,1.26909935E2,3.1000082E2,5.78069E1,2.5219392E2,1.2660991E0,5.6540802E1,1.7047868E2,8.171525E1,1.2711745E2,4.3361233E1,6.6618866E1,1.5096384E1],"tree_param":{"num_deleted":"0","num_feature":"12","num_nodes":"13","size_leaf_vector":"1"}},{"base_weights":[3.8230573E-3,1.14962E-1,-4.430234E-1,-7.048114E-1,1.2277626E-1,4.0605128E-1,-7.172281E-1,-1.588186E-2,7.029189E-2,-7.437773E-2,-3.147346E-2],"categories":[],"categories_nodes":[],"categories_segments":[],"categories_sizes":[],"default_left":[0,0,0,0,0,0,0,0,0,0,0],"id":16,"left_children":[1,-1,3,5,-1,7,9,-1,-1,-1,-1],"loss_changes":[2.149767E2,0E0,1.3299307E2,3.902237E0,0E0,7.039898E-1,2.5363617E0,0E0,0E0,0E0,0E0],"parents":[2147483647,0,0,2,2,3,3,5,5,6,6],"right_children":[2,-1,4,6,-1,8,10,-1,-1,-1,-1],"split_conditions":[7E1,1.14962E-1,5E0,6.3384614E3,1.2277626E-1,8.1E1,3.82E0,-1.588186E-2,7.029189E-2,-7.437773E-2,-3.147346E-2],"split_indices":[6,0,8,9,0,6,4,0,0,0,0],"split_type":[0,0,0,0,0,0,0,0,0,0,0],"sum_hessian":[4.1788544E2,1.16804474E2,3.0108096E2,2.6079614E2,4.0284824E1,2.5323968E0,2.5826376E2,1.0326064E0,1.4997905E0,2.4148694E2,1.6776821E1],"tree_param":{"num_deleted":"0","num_feature":"12","num_nodes":"11","size_leaf_vector":"1"}},{"base_weights":[1.7341947E-3,1.131356E-1,-4.1695955E-1,-7.60612E-1,-3.2949454E-1,-8.0001974E-1,-3.6714363E-1,-3.3824688E-1,6.049023E-2,-1.4298013E-2,-8.167167E-2,-7.7164195E-2,2.7580997E-2,-3.1118741E-2,-7.384141E-2],"categories":[],"categories_nodes":[],"categories_segments":[],"categories_sizes":[],"default_left":[0,0,0,0,0,0,0,0,0,0,0,0,0,0,0],"id":17,"left_children":[1,-1,3,5,7,9,11,13,-1,-1,-1,-1,-1,-1,-1],"loss_changes":[1.8717522E2,0E0,8.428005E0,6.0272217E-1,2.101284E0,4.50428E-1,2.062302E0,2.26515E0,0E0,0E0,0E0,0E0,0E0,0E0,0E0],"parents":[2147483647,0,0,2,2,3,3,4,4,5,5,6,6,7,7],"right_children":[2,-1,4,6,8,10,12,14,-1,-1,-1,-1,-1,-1,-1],"split_conditions":[7E1,1.131356E-1,7.5E1,3.3E1,1.49445E5,7.875769E3,2.53396E4,1.42377E5,6.049023E-2,-1.4298013E-2,-8.167167E-2,-7.7164195E-2,2.7580997E-2,-3.1118741E-2,-7.384141E-2],"split_indices":[6,0,6,0,5,9,9,5,0,0,0,0,0,0,0],"split_type":[0,0,0,0,0,0,0,0,0,0,0,0,0,0,0],"sum_hessian":[3.9375067E2,1.0601733E2,2.8773334E2,5.6813877E1,2.3091945E2,5.0702526E1,6.111353E0,2.2940862E2,1.5108303E0,1.4935411E0,4.9208984E1,3.6284513E0,2.4829018E0,2.165435E2,1.286512E1],"tree_param":{"num_deleted":"0","num_feature":"12","num_nodes":"15","size_leaf_vector":"1"}},{"base_weights":[2.006984E-2,1.1150982E-1,-3.5832548E-1,-6.0503614E-1,1.2058665E-1,-8.586476E-1,-5.3570485E-1,1.567291E-2,-8.87373E-2,-5.716402E-2,-1.8005393E-2],"categories":[],"categories_nodes":[],"categories_segments":[],"categories_sizes":[],"default_left":[0,0,0,0,0,0,0,0,0,0,0],"id":18,"left_children":[1,-1,3,5,-1,7,9,-1,-1,-1,-1],"loss_changes":[1.6009398E2,0E0,1.1155524E2,3.9134216E0,0E0,1.6481667E0,2.4274292E0,0E0,0E0,0E0,0E0],"parents":[2147483647,0,0,2,2,3,3,5,5,6,6],"right_children":[2,-1,4,6,-1,8,10,-1,-1,-1,-1],"split_conditions":[7E1,1.1150982E-1,5E0,7.5E1,1.2058665E-1,7.2619443E3,3.74E0,1.567291E-2,-8.87373E-2,-5.716402E-2,-1.8005393E-2],"split_indices":[6,0,8,6,0,9,4,0,0,0,0],"split_type":[0,0,0,0,0,0,0,0,0,0,0],"sum_hessian":[3.844061E2,9.822074E1,2.8618536E2,2.4772618E2,3.845918E1,5.0739212E1,1.9698697E2,1.2733463E0,4.9465866E1,1.7835817E2,1.8628809E1],"tree_param":{"num_deleted":"0","num_feature":"12","num_nodes":"11","size_leaf_vector":"1"}},{"base_weights":[-5.788871E-4,1.10151246E-1,-3.6687082E-1,-5.988108E-1,1.1761697E-1,-6.0846144E-1,4.9636133E-2,2.0667214E-2,-6.167658E-2],"categories":[],"categories_nodes":[],"categories_segments":[],"categories_sizes":[],"default_left":[0,0,0,0,0,0,0,0,0],"id":19,"left_children":[1,-1,3,5,-1,7,-1,-1,-1],"loss_changes":[1.4719266E2,0E0,9.864662E1,2.8234482E0,0E0,1.7313004E0,0E0,0E0,0E0],"parents":[2147483647,0,0,2,2,3,3,5,5],"right_children":[2,-1,4,6,-1,8,-1,-1,-1],"split_conditions":[7E1,1.10151246E-1,5E0,1.49445E5,1.1761697E-1,6.3384614E3,4.9636133E-2,2.0667214E-2,-6.167658E-2],"split_indices":[6,0,8,5,0,9,0,0,0],"split_type":[0,0,0,0,0,0,0,0,0],"sum_hessian":[3.6261954E2,8.9955666E1,2.7266388E2,2.3756635E2,3.5097527E1,2.3593175E2,1.6346093E0,2.1384683E0,2.3379327E2],"tree_param":{"num_deleted":"0","num_feature":"12","num_nodes":"9","size_leaf_vector":"1"}},{"base_weights":[7.866991E-3,1.0888236E-1,-3.460358E-1,-5.600004E-1,1.1506408E-1,-8.2976496E-1,-4.8842514E-1,-1.9461611E-2,-8.6386286E-2,-5.615885E-2,-3.2927927E-2],"categories":[],"categories_nodes":[],"categories_segments":[],"categories_sizes":[],"default_left":[0,0,0,0,0,0,0,0,0,0,0],"id":20,"left_children":[1,-1,3,5,-1,7,9,-1,-1,-1,-1],"loss_changes":[1.3173393E2,0E0,8.372551E1,3.9904861E0,0E0,8.3475685E-1,1.9383354E0,0E0,0E0,0E0,0E0],"parents":[2147483647,0,0,2,2,3,3,5,5,6,6],"right_children":[2,-1,4,6,-1,8,10,-1,-1,-1,-1],"split_conditions":[7E1,1.0888236E-1,5E0,7.5E1,1.1506408E-1,8.9508E3,2E0,-1.9461611E-2,-8.6386286E-2,-5.615885E-2,-3.2927927E-2],"split_indices":[6,0,8,6,0,9,1,0,0,0,0],"split_type":[0,0,0,0,0,0,0,0,0,0,0],"sum_hessian":[3.4236935E2,8.393195E1,2.584374E2,2.2665997E2,3.177743E1,4.530692E1,1.8135306E2,2.6501179E0,4.26568E1,1.22505455E2,5.8847603E1],"tree_param":{"num_deleted":"0","num_feature":"12","num_nodes":"11","size_leaf_vector":"1"}},{"base_weights":[2.0070663E-2,1.07708834E-1,-3.012847E-1,-4.9665144E-1,1.1287143E-1,-5.5031043E-1,9.860467E-3,-6.374099E-2,-3.9070006E-2,-3.083819E-2,7.8449726E-2],"categories":[],"categories_nodes":[],"categories_segments":[],"categories_sizes":[],"default_left":[0,0,0,0,0,0,0,0,0,0,0],"id":21,"left_children":[1,-1,3,5,-1,7,9,-1,-1,-1,-1],"loss_changes":[1.1137227E2,0E0,7.081853E1,6.037773E0,0E0,2.5411797E0,5.725328E0,0E0,0E0,0E0,0E0],"parents":[2147483647,0,0,2,2,3,3,5,5,6,6],"right_children":[2,-1,4,6,-1,8,10,-1,-1,-1,-1],"split_conditions":[7E1,1.07708834E-1,5E0,3.74E0,1.1287143E-1,8.9E1,3.751857E4,-6.374099E-2,-3.9070006E-2,-3.083819E-2,7.8449726E-2],"split_indices":[6,0,8,4,0,6,9,0,0,0,0],"split_type":[0,0,0,0,0,0,0,0,0,0,0],"sum_hessian":[3.2592035E2,7.543713E1,2.5048322E2,2.209497E2,2.9533503E1,1.9970668E2,2.1243038E1,1.2726473E2,7.244194E1,1.5483774E1,5.759264E0],"tree_param":{"num_deleted":"0","num_feature":"12","num_nodes":"11","size_leaf_vector":"1"}},{"base_weights":[-2.0621242E-2,1.0661846E-1,-3.330017E-1,-6.329246E-1,-2.583158E-1,2.1202235E-2,-6.609675E-1,-1.6371448E-1,-3.9443773E-1,-4.703095E-2,-8.170849E-2,-2.4926271E-2,4.6126363E-3,-6.9831586E-3,-4.7257524E-2],"categories":[],"categories_nodes":[],"categories_segments":[],"categories_sizes":[],"default_left":[0,0,0,0,0,0,0,0,0,0,0,0,0,0,0],"id":22,"left_children":[1,-1,3,5,7,-1,9,11,13,-1,-1,-1,-1,-1,-1],"loss_changes":[1.0534189E2,0E0,5.234091E0,1.2621212E0,2.4415035E0,0E0,9.8708725E-1,2.1033263E0,1.9729156E0,0E0,0E0,0E0,0E0,0E0,0E0],"parents":[2147483647,0,0,2,2,3,3,4,4,6,6,7,7,8,8],"right_children":[2,-1,4,6,8,-1,10,12,14,-1,-1,-1,-1,-1,-1],"split_conditions":[7E1,1.0661846E-1,7.5E1,7.2619443E3,3.2288918E4,2.1202235E-2,2E0,3E1,2.1E1,-4.703095E-2,-8.170849E-2,-2.4926271E-2,4.6126363E-3,-6.9831586E-3,-4.7257524E-2],"split_indices":[6,0,6,9,9,0,2,0,0,0,0,0,0,0,0],"split_type":[0,0,0,0,0,0,0,0,0,0,0,0,0,0,0],"sum_hessian":[3.0824246E2,6.827906E1,2.3996341E2,4.63514E1,1.93612E2,1.2781924E0,4.5073208E1,1.155266E2,7.80854E1,2.2098276E1,2.2974932E1,8.193525E1,3.359135E1,1.5516986E1,6.2568417E1],"tree_param":{"num_deleted":"0","num_feature":"12","num_nodes":"15","size_leaf_vector":"1"}},{"base_weights":[1.5199199E-2,1.05717026E-1,-2.6836172E-1,-4.5537403E-1,1.1134728E-1,-6.1206543E-1,-3.5583195E-1,-3.3416934E-2,-7.25868E-2,-1.24824075E-2,-5.1033854E-2],"categories":[],"categories_nodes":[],"categories_segments":[],"categories_sizes":[],"default_left":[0,0,0,0,0,0,0,0,0,0,0],"id":23,"left_children":[1,-1,3,5,-1,7,9,-1,-1,-1,-1],"loss_changes":[8.9990135E1,0E0,6.238875E1,3.083027E0,0E0,2.31353E0,4.6406155E0,0E0,0E0,0E0,0E0],"parents":[2147483647,0,0,2,2,3,3,5,5,6,6],"right_children":[2,-1,4,6,-1,8,10,-1,-1,-1,-1],"split_conditions":[7E1,1.05717026E-1,5E0,2.17E0,1.1134728E-1,1.36E0,2E0,-3.3416934E-2,-7.25868E-2,-1.24824075E-2,-5.1033854E-2],"split_indices":[6,0,8,4,0,4,8,0,0,0,0],"split_type":[0,0,0,0,0,0,0,0,0,0,0],"sum_hessian":[3.0261383E2,6.415224E1,2.384616E2,2.1062663E2,2.7834965E1,7.982442E1,1.3080222E2,2.4335522E1,5.5488895E1,5.314751E1,7.76547E1],"tree_param":{"num_deleted":"0","num_feature":"12","num_nodes":"11","size_leaf_vector":"1"}},{"base_weights":[4.017596E-3,-1.4340387E-1,1.0842935E-1,3.7405863E-1,-4.18574E-1,7.133953E-1,3.4488264E-1,-5.888767E-1,-3.0909565E-1,-3.6922596E-2,1.0018679E-1,-1.2727625E-2,3.9194565E-2,-6.276356E-2,2.1914495E-2,4.8450436E-2,-3.3766463E-2],"categories":[],"categories_nodes":[],"categories_segments":[],"categories_sizes":[],"default_left":[0,0,0,0,0,0,0,0,0,0,0,0,0,0,0,0,0],"id":24,"left_children":[1,3,-1,5,7,9,11,13,15,-1,-1,-1,-1,-1,-1,-1,-1],"loss_changes":[4.6071712E1,3.6406197E1,0E0,6.3419247E-1,2.9254818E0,2.2759714E0,1.9121265E0,2.1454582E0,2.5115013E0,0E0,0E0,0E0,0E0,0E0,0E0,0E0,0E0],"parents":[2147483647,0,0,1,1,3,3,4,4,5,5,6,6,7,7,8,8],"right_children":[2,4,-1,6,8,10,12,14,16,-1,-1,-1,-1,-1,-1,-1,-1],"split_conditions":[5E0,1E0,1.0842935E-1,2.7254E4,2.21E0,1.54E0,1.1639189E4,1.46213E5,2.26E0,-3.6922596E-2,1.0018679E-1,-1.2727625E-2,3.9194565E-2,-6.276356E-2,2.1914495E-2,4.8450436E-2,-3.3766463E-2],"split_indices":[8,10,0,5,4,4,9,5,4,0,0,0,0,0,0,0,0],"split_type":[0,0,0,0,0,0,0,0,0,0,0,0,0,0,0,0,0],"sum_hessian":[2.873173E2,2.5357945E2,3.373785E1,8.7907814E1,1.6567165E2,5.103155E0,8.280466E1,6.3113842E1,1.025578E2,1.0147864E0,4.088369E0,7.3510413E0,7.545361E1,6.0438023E1,2.6758187E0,3.0091608E0,9.954864E1],"tree_param":{"num_deleted":"0","num_feature":"12","num_nodes":"17","size_leaf_vector":"1"}},{"base_weights":[1.3124171E-2,-1.1938654E-1,1.0692706E-1,2.5642145E-1,-3.3969867E-1,2.771588E-1,-1.2667124E-1,-4.728043E-1,-2.0673074E-1,1.5467207E-2,3.5375535E-2,-2.4666416E-2,1.3871876E-2,-6.603427E-2,-3.400707E-2,3.4804113E-2,-2.5574028E-2],"categories":[],"categories_nodes":[],"categories_segments":[],"categories_sizes":[],"default_left":[0,0,0,0,0,0,0,0,0,0,0,0,0,0,0,0,0],"id":25,"left_children":[1,3,-1,5,7,9,11,13,15,-1,-1,-1,-1,-1,-1,-1,-1],"loss_changes":[3.9550163E1,2.0884035E1,0E0,7.7712584E-1,2.7125282E0,7.795329E-1,2.0881265E-1,1.7313423E0,2.297029E0,0E0,0E0,0E0,0E0,0E0,0E0,0E0,0E0],"parents":[2147483647,0,0,1,1,3,3,4,4,5,5,6,6,7,7,8,8],"right_children":[2,4,-1,6,8,10,12,14,16,-1,-1,-1,-1,-1,-1,-1,-1],"split_conditions":[5E0,1E0,1.0692706E-1,3.86E0,2E0,2.11E0,2E0,2.21E0,1.21E0,1.5467207E-2,3.5375535E-2,-2.4666416E-2,1.3871876E-2,-6.603427E-2,-3.400707E-2,3.4804113E-2,-2.5574028E-2],"split_indices":[8,10,0,4,2,4,1,4,4,0,0,0,0,0,0,0,0],"split_type":[0,0,0,0,0,0,0,0,0,0,0,0,0,0,0,0,0],"sum_hessian":[2.806885E2,2.5018561E2,3.0502884E1,9.2402214E1,1.577834E2,8.7919525E1,4.482686E0,7.757365E1,8.0209755E1,3.498838E1,5.293115E1,3.135546E0,1.3471401E0,3.0502262E1,4.707138E1,6.0154414E0,7.419431E1],"tree_param":{"num_deleted":"0","num_feature":"12","num_nodes":"17","size_leaf_vector":"1"}},{"base_weights":[5.274923E-3,1.0424508E-1,-2.5014037E-1,-3.9634636E-1,1.0613042E-1,-6.4404476E-1,-3.262369E-1,-3.0286783E-2,-8.130993E-2,-4.037069E-2,-1.6530184E-2],"categories":[],"categories_nodes":[],"categories_segments":[],"categories_sizes":[],"default_left":[0,0,0,0,0,0,0,0,0,0,0],"id":26,"left_children":[1,-1,3,5,-1,7,9,-1,-1,-1,-1],"loss_changes":[7.228785E1,0E0,4.240674E1,3.223795E0,0E0,2.210514E0,1.8799953E0,0E0,0E0,0E0,0E0],"parents":[2147483647,0,0,2,2,3,3,5,5,6,6],"right_children":[2,-1,4,6,-1,8,10,-1,-1,-1,-1],"split_conditions":[7E1,1.0424508E-1,5E0,7.5E1,1.0613042E-1,7.0338E4,2E0,-3.0286783E-2,-8.130993E-2,-4.037069E-2,-1.6530184E-2],"split_indices":[6,0,8,6,0,5,1,0,0,0,0],"split_type":[0,0,0,0,0,0,0,0,0,0,0],"sum_hessian":[2.7089215E2,5.291926E1,2.179729E2,1.9673746E2,2.1235441E1,4.1595016E1,1.5514244E2,1.4706555E1,2.688846E1,1.0371041E2,5.1432026E1],"tree_param":{"num_deleted":"0","num_feature":"12","num_nodes":"11","size_leaf_vector":"1"}},{"base_weights":[8.084463E-4,1.03502475E-1,-2.425311E-1,-5.112571E-1,-1.7039591E-1,2.0021038E-1,-5.654141E-1,-2.795796E-1,-5.8648743E-2,6.0731053E-2,-3.100114E-2,-8.383756E-2,-4.2082872E-2,-3.7255205E-2,-8.50003E-3,8.638273E-2,-9.3188E-3],"categories":[],"categories_nodes":[],"categories_segments":[],"categories_sizes":[],"default_left":[0,0,0,0,0,0,0,0,0,0,0,0,0,0,0,0,0],"id":27,"left_children":[1,-1,3,5,7,9,11,13,15,-1,-1,-1,-1,-1,-1,-1,-1],"loss_changes":[6.708315E1,0E0,4.0958385E0,1.8535042E0,2.0775466E0,1.0052805E0,1.3139677E0,1.5338993E0,2.8231587E0,0E0,0E0,0E0,0E0,0E0,0E0,0E0,0E0],"parents":[2147483647,0,0,2,2,3,3,4,4,5,5,6,6,7,7,8,8],"right_children":[2,-1,4,6,8,10,12,14,16,-1,-1,-1,-1,-1,-1,-1,-1],"split_conditions":[7E1,1.03502475E-1,7.5E1,9.478378E3,2E0,2.9E1,1E0,2E0,7.6E1,6.0731053E-2,-3.100114E-2,-8.383756E-2,-4.2082872E-2,-3.7255205E-2,-8.50003E-3,8.638273E-2,-9.3188E-3],"split_indices":[6,0,6,9,2,0,1,1,6,0,0,0,0,0,0,0,0],"split_type":[0,0,0,0,0,0,0,0,0,0,0,0,0,0,0,0,0],"sum_hessian":[2.645591E2,4.9771603E1,2.1478749E2,4.416641E1,1.7062108E2,2.9333775E0,4.1233032E1,8.554074E1,8.5080345E1,1.5257286E0,1.4076489E0,1.2616314E1,2.8616716E1,5.7264427E1,2.8276314E1,2.2040648E0,8.287628E1],"tree_param":{"num_deleted":"0","num_feature":"12","num_nodes":"17","size_leaf_vector":"1"}},{"base_weights":[2.4497582E-2,1.0273124E-1,-1.9262287E-1,-3.294988E-1,1.04990445E-1,-4.7125357E-1,-2.2582345E-1,-6.1698325E-2,-1.9053552E-2,-9.328847E-3,-3.4946766E-2],"categories":[],"categories_nodes":[],"categories_segments":[],"categories_sizes":[],"default_left":[0,0,0,0,0,0,0,0,0,0,0],"id":28,"left_children":[1,-1,3,5,-1,7,9,-1,-1,-1,-1],"loss_changes":[5.5581985E1,0E0,3.60507E1,2.6839733E0,0E0,3.1258926E0,1.7959404E0,0E0,0E0,0E0,0E0],"parents":[2147483647,0,0,2,2,3,3,5,5,6,6],"right_children":[2,-1,4,6,-1,8,10,-1,-1,-1,-1],"split_conditions":[7E1,1.0273124E-1,5E0,8.2E1,1.04990445E-1,2E0,8.2507E4,-6.1698325E-2,-1.9053552E-2,-9.328847E-3,-3.4946766E-2],"split_indices":[6,0,8,6,0,3,5,0,0,0,0],"split_type":[0,0,0,0,0,0,0,0,0,0,0],"sum_hessian":[2.5336868E2,4.4429676E1,2.08939E2,1.8886823E2,2.0070772E1,7.82846E1,1.10583626E2,5.074394E1,2.754066E1,5.4219696E1,5.636393E1],"tree_param":{"num_deleted":"0","num_feature":"12","num_nodes":"11","size_leaf_vector":"1"}},{"base_weights":[-1.495035E-2,1.02059774E-1,-2.2672826E-1,-3.6140525E-1,1.0369682E-1,8.5447036E-2,-3.789207E-1,-6.691746E-2,-2.9592931E-2],"categories":[],"categories_nodes":[],"categories_segments":[],"categories_sizes":[],"default_left":[0,0,0,0,0,0,0,0,0],"id":29,"left_children":[1,-1,3,5,-1,-1,7,-1,-1],"loss_changes":[5.3789562E1,0E0,3.502055E1,4.257391E0,0E0,0E0,4.2047787E0,0E0,0E0],"parents":[2147483647,0,0,2,2,3,3,6,6],"right_children":[2,-1,4,6,-1,-1,8,-1,-1],"split_conditions":[7E1,1.02059774E-1,5E0,6.3384614E3,1.0369682E-1,8.5447036E-2,7.5E1,-6.691746E-2,-2.9592931E-2],"split_indices":[6,0,8,9,0,0,6,0,0],"split_type":[0,0,0,0,0,0,0,0,0],"sum_hessian":[2.4321638E2,4.0646183E1,2.025702E2,1.8370596E2,1.886424E1,1.9302392E0,1.8177571E2,3.884749E1,1.4292824E2],"tree_param":{"num_deleted":"0","num_feature":"12","num_nodes":"9","size_leaf_vector":"1"}},{"base_weights":[-1.7196104E-2,-1.2814811E-1,1.0241934E-1,-2.5695613E-1,-5.188102E-2,1.9925271E-1,-2.9129553E-1,1.13811634E-1,-1.7234004E-1,-1.2482526E-2,8.351792E-2,-6.891977E-2,-2.577505E-2,-3.1187348E-3,4.817405E-2,2.3948995E-3,-2.9843569E-2],"categories":[],"categories_nodes":[],"categories_segments":[],"categories_sizes":[],"default_left":[0,0,0,0,0,0,0,0,0,0,0,0,0,0,0,0,0],"id":30,"left_children":[1,3,-1,5,7,9,11,13,15,-1,-1,-1,-1,-1,-1,-1,-1],"loss_changes":[2.7250027E1,2.0790935E0,0E0,1.2950163E0,2.714813E0,1.3657568E0,8.079262E-1,3.0797894E0,1.9523056E0,0E0,0E0,0E0,0E0,0E0,0E0,0E0,0E0],"parents":[2147483647,0,0,1,1,3,3,4,4,5,5,6,6,7,7,8,8],"right_children":[2,4,-1,6,8,10,12,14,16,-1,-1,-1,-1,-1,-1,-1,-1],"split_conditions":[5E0,2.14E0,1.0241934E-1,1.07E0,2E0,1.05E0,1.13E0,1.13256E5,6.9807E4,-1.2482526E-2,8.351792E-2,-6.891977E-2,-2.577505E-2,-3.1187348E-3,4.817405E-2,2.3948995E-3,-2.9843569E-2],"split_indices":[8,4,0,4,8,4,4,5,5,0,0,0,0,0,0,0,0],"split_type":[0,0,0,0,0,0,0,0,0,0,0,0,0,0,0,0,0],"sum_hessian":[2.3370465E2,2.1199515E2,2.17095E1,7.795956E1,1.340356E2,5.1211457E0,7.283841E1,5.644714E1,7.7588455E1,3.9247456E0,1.1964E0,4.143524E0,6.8694885E1,4.114667E1,1.53004675E1,3.066434E1,4.6924114E1],"tree_param":{"num_deleted":"0","num_feature":"12","num_nodes":"17","size_leaf_vector":"1"}},{"base_weights":[4.1972507E-2,-5.2991346E-2,1.0131412E-1,-1.6640082E-1,1.2805331E-2,-1.9709082E-1,5.249533E-1,5.6030255E-2,-5.5749995E-1,-9.556353E-3,-4.2933296E-2,1.4578883E-1,-4.295305E-2,1.8681644E-3,1.203988E-1,5.1738992E-3,-7.433765E-2],"categories":[],"categories_nodes":[],"categories_segments":[],"categories_sizes":[],"default_left":[0,0,0,0,0,0,0,0,0,0,0,0,0,0,0,0,0],"id":31,"left_children":[1,3,-1,5,7,9,11,13,15,-1,-1,-1,-1,-1,-1,-1,-1],"loss_changes":[2.160437E1,1.5975668E0,0E0,1.7705941E0,3.3896515E0,1.75003E0,3.8431652E0,5.446025E0,1.135737E0,0E0,0E0,0E0,0E0,0E0,0E0,0E0,0E0],"parents":[2147483647,0,0,1,1,3,3,4,4,5,5,6,6,7,7,8,8],"right_children":[2,4,-1,6,8,10,12,14,16,-1,-1,-1,-1,-1,-1,-1,-1],"split_conditions":[5E0,2.11E0,1.0131412E-1,1.46213E5,1.42377E5,3.6557668E4,1.43E0,1.39166E5,1E0,-9.556353E-3,-4.2933296E-2,1.4578883E-1,-4.295305E-2,1.8681644E-3,1.203988E-1,5.1738992E-3,-7.433765E-2],"split_indices":[8,4,0,5,5,9,4,5,7,0,0,0,0,0,0,0,0],"split_type":[0,0,0,0,0,0,0,0,0,0,0,0,0,0,0,0,0],"sum_hessian":[2.3267274E2,2.1280905E2,1.9863688E1,7.757281E1,1.3523625E2,7.496017E1,2.6126459E0,1.265467E2,8.68955E0,5.314062E1,2.1819542E1,1.0545213E0,1.5581244E0,1.235435E2,3.0031936E0,2.200084E0,6.4894667E0],"tree_param":{"num_deleted":"0","num_feature":"12","num_nodes":"17","size_leaf_vector":"1"}},{"base_weights":[2.360187E-2,1.0146107E-1,-1.7565686E-1,-2.79131E-1,9.990765E-2,-2.9421324E-1,1.1150924E-1,-4.642968E-2,-1.930009E-2],"categories":[],"categories_nodes":[],"categories_segments":[],"categories_sizes":[],"default_left":[0,0,0,0,0,0,0,0,0],"id":32,"left_children":[1,-1,3,5,-1,7,-1,-1,-1],"loss_changes":[4.5082355E1,0E0,2.3396671E1,4.01997E0,0E0,2.914032E0,0E0,0E0,0E0],"parents":[2147483647,0,0,2,2,3,3,5,5],"right_children":[2,-1,4,6,-1,8,-1,-1,-1],"split_conditions":[7E1,1.0146107E-1,5E0,1.49445E5,9.990765E-2,2.17E0,1.1150924E-1,-4.642968E-2,-1.930009E-2],"split_indices":[6,0,8,5,0,4,0,0,0],"split_type":[0,0,0,0,0,0,0,0,0],"sum_hessian":[2.2640053E2,3.7215946E1,1.8918459E2,1.7457028E2,1.4614304E1,1.7348259E2,1.0876998E0,6.3382805E1,1.1009978E2],"tree_param":{"num_deleted":"0","num_feature":"12","num_nodes":"9","size_leaf_vector":"1"}},{"base_weights":[1.0569261E-3,1.0078273E-1,-1.815522E-1,-3.566507E-1,-8.1415266E-2,-3.9169946E-1,4.484015E-1,-3.2372093E-1,2.689096E-2,-2.9348671E-2,-6.2147748E-2,1.1173842E-1,-5.020398E-2,-4.5627516E-2,1.4386224E-2,-1.29103875E-2,3.346103E-2],"categories":[],"categories_nodes":[],"categories_segments":[],"categories_sizes":[],"default_left":[0,0,0,0,0,0,0,0,0,0,0,0,0,0,0,0,0],"id":33,"left_children":[1,-1,3,5,7,9,11,13,15,-1,-1,-1,-1,-1,-1,-1,-1],"loss_changes":[4.1337597E1,0E0,3.3082252E0,2.1211834E0,3.2203794E0,1.3207722E0,2.6864796E0,2.4135103E0,4.147431E0,0E0,0E0,0E0,0E0,0E0,0E0,0E0,0E0],"parents":[2147483647,0,0,2,2,3,3,4,4,5,5,6,6,7,7,8,8],"right_children":[2,-1,4,6,8,10,12,14,16,-1,-1,-1,-1,-1,-1,-1,-1],"split_conditions":[7E1,1.0078273E-1,2.17E0,1.46213E5,7.9E1,1.11123E5,1.49E0,4.1000277E4,1E0,-2.9348671E-2,-6.2147748E-2,1.1173842E-1,-5.020398E-2,-4.5627516E-2,1.4386224E-2,-1.29103875E-2,3.346103E-2],"split_indices":[6,0,4,5,6,5,4,9,11,0,0,0,0,0,0,0,0],"split_type":[0,0,0,0,0,0,0,0,0,0,0,0,0,0,0,0,0],"sum_hessian":[2.2285446E2,3.3521717E1,1.8933275E2,6.79516E1,1.2138116E2,6.56087E1,2.3428943E0,3.688101E1,8.4500145E1,4.7558357E1,1.8050346E1,1.2719587E0,1.0709355E0,2.8753826E1,8.12718E0,5.645923E1,2.8040918E1],"tree_param":{"num_deleted":"0","num_feature":"12","num_nodes":"17","size_leaf_vector":"1"}},{"base_weights":[3.1546436E-2,1.001604E-1,-1.3692674E-1,-3.997473E-1,-1.2945967E-2,-4.868928E-1,-1.2510054E-1,-1.3221855E-1,2.2237778E-1,1.1616479E-2,-5.187821E-2,2.2549473E-2,-7.2900884E-2,1.159591E-2,-3.1886723E-2,-5.7303314E-3,5.635507E-2],"categories":[],"categories_nodes":[],"categories_segments":[],"categories_sizes":[],"default_left":[0,0,0,0,0,0,0,0,0,0,0,0,0,0,0,0,0],"id":34,"left_children":[1,-1,3,5,7,9,11,13,15,-1,-1,-1,-1,-1,-1,-1,-1],"loss_changes":[3.503209E1,0E0,5.951388E0,1.3406744E0,3.54467E0,9.0852165E-1,3.435828E0,3.9161172E0,4.087595E0,0E0,0E0,0E0,0E0,0E0,0E0,0E0,0E0],"parents":[2147483647,0,0,2,2,3,3,4,4,5,5,6,6,7,7,8,8],"right_children":[2,-1,4,6,8,10,12,14,16,-1,-1,-1,-1,-1,-1,-1,-1],"split_conditions":[7E1,1.001604E-1,7.9E1,3E0,1E0,2.7254E4,1E0,2.4199428E4,2.75E0,1.1616479E-2,-5.187821E-2,2.2549473E-2,-7.2900884E-2,1.159591E-2,-3.1886723E-2,-5.7303314E-3,5.635507E-2],"split_indices":[6,0,6,2,11,5,11,9,4,0,0,0,0,0,0,0,0],"split_type":[0,0,0,0,0,0,0,0,0,0,0,0,0,0,0,0,0],"sum_hessian":[2.1251787E2,3.0715403E1,1.8180246E2,5.755989E1,1.2424257E2,4.31087E1,1.4451194E1,8.2742905E1,4.1499664E1,2.0323417E0,4.107636E1,9.539628E0,4.9115653E0,3.5679863E1,4.7063046E1,2.3262201E1,1.8237461E1],"tree_param":{"num_deleted":"0","num_feature":"12","num_nodes":"17","size_leaf_vector":"1"}},{"base_weights":[-1.1481604E-2,9.953996E-2,-1.6694872E-1,-2.6421255E-1,9.914026E-2,-2.432223E-1,-7.415687E-1,-3.730006E-2,-1.4659973E-2,-2.6991067E-3,-9.301415E-2],"categories":[],"categories_nodes":[],"categories_segments":[],"categories_sizes":[],"default_left":[0,0,0,0,0,0,0,0,0,0,0],"id":35,"left_children":[1,-1,3,5,-1,7,9,-1,-1,-1,-1],"loss_changes":[3.3922035E1,0E0,2.1404251E1,1.5621672E0,0E0,2.0528536E0,8.961706E-1,0E0,0E0,0E0,0E0],"parents":[2147483647,0,0,2,2,3,3,5,5,6,6],"right_children":[2,-1,4,6,-1,8,10,-1,-1,-1,-1],"split_conditions":[7E1,9.953996E-2,5E0,1E2,9.914026E-2,8.2E1,1E0,-3.730006E-2,-1.4659973E-2,-2.6991067E-3,-9.301415E-2],"split_indices":[6,0,8,6,0,6,1,0,0,0,0],"split_type":[0,0,0,0,0,0,0,0,0,0,0],"sum_hessian":[2.146415E2,2.7986242E1,1.8665524E2,1.7290846E2,1.3746783E1,1.6707153E2,5.836935E0,7.008146E1,9.699007E1,1.4573998E0,4.379535E0],"tree_param":{"num_deleted":"0","num_feature":"12","num_nodes":"11","size_leaf_vector":"1"}},{"base_weights":[2.5288807E-2,9.889654E-2,-1.1501732E-1,-3.144834E-1,-2.8698998E-2,-4.2752892E-1,4.993733E-3,-1.9448626E-1,6.0889825E-2,9.095913E-3,-4.993482E-2,8.752138E-2,-3.0204749E-2,-2.526106E-2,7.068519E-2,3.7879553E-2,-8.1371525E-3],"categories":[],"categories_nodes":[],"categories_segments":[],"categories_sizes":[],"default_left":[0,0,0,0,0,0,0,0,0,0,0,0,0,0,0,0,0],"id":36,"left_children":[1,-1,3,5,7,9,11,13,15,-1,-1,-1,-1,-1,-1,-1,-1],"loss_changes":[2.7942688E1,0E0,3.0997539E0,1.9680958E0,1.8999602E0,1.5430942E0,4.329939E0,2.527429E0,3.7975976E0,0E0,0E0,0E0,0E0,0E0,0E0,0E0,0E0],"parents":[2147483647,0,0,2,2,3,3,4,4,5,5,6,6,7,7,8,8],"right_children":[2,-1,4,6,8,10,12,14,16,-1,-1,-1,-1,-1,-1,-1,-1],"split_conditions":[7E1,9.889654E-2,7.9E1,3E0,2.19E0,2E1,1.91E0,1.44683E5,5.8045E4,9.095913E-3,-4.993482E-2,8.752138E-2,-3.0204749E-2,-2.526106E-2,7.068519E-2,3.7879553E-2,-8.1371525E-3],"split_indices":[6,0,6,2,4,0,4,5,5,0,0,0,0,0,0,0,0],"split_type":[0,0,0,0,0,0,0,0,0,0,0,0,0,0,0,0,0],"sum_hessian":[2.0482054E2,2.5262096E1,1.7955844E2,5.343545E1,1.2612299E2,3.921957E1,1.4215879E1,4.3834614E1,8.2288376E1,4.7391953E0,3.4480377E1,3.2250175E0,1.0990862E1,4.1855247E1,1.9793688E0,2.492556E1,5.7362816E1],"tree_param":{"num_deleted":"0","num_feature":"12","num_nodes":"17","size_leaf_vector":"1"}},{"base_weights":[-4.666941E-3,9.829349E-2,-1.3900253E-1,-2.3100306E-1,9.8120734E-2,-4.6483946E-1,-1.6904029E-1,-8.8739276E-2,-3.5335653E-2,-5.547688E-3,-3.3251557E-2],"categories":[],"categories_nodes":[],"categories_segments":[],"categories_sizes":[],"default_left":[0,0,0,0,0,0,0,0,0,0,0],"id":37,"left_children":[1,-1,3,5,-1,7,9,-1,-1,-1,-1],"loss_changes":[2.677935E1,0E0,1.8535282E1,2.3118E0,0E0,1.287487E0,2.4319177E0,0E0,0E0,0E0,0E0],"parents":[2147483647,0,0,2,2,3,3,5,5,6,6],"right_children":[2,-1,4,6,-1,8,10,-1,-1,-1,-1],"split_conditions":[7E1,9.829349E-2,5E0,7.5E1,9.8120734E-2,1.57E0,3.2288918E4,-8.8739276E-2,-3.5335653E-2,-5.547688E-3,-3.3251557E-2],"split_indices":[6,0,8,6,0,4,9,0,0,0,0],"split_type":[0,0,0,0,0,0,0,0,0,0,0],"sum_hessian":[1.9981935E2,2.3169075E1,1.7665028E2,1.6397697E2,1.26733055E1,3.2987217E1,1.3098976E2,5.4333444E0,2.7553871E1,7.808491E1,5.2904854E1],"tree_param":{"num_deleted":"0","num_feature":"12","num_nodes":"11","size_leaf_vector":"1"}},{"base_weights":[5.1203705E-3,9.7620174E-2,-1.156603E-1,-1.9720979E-1,9.684375E-2,-1.3113642E-1,-4.8952E-1,-1.770213E-2,2.4529306E-2,-8.189598E-3,-6.844194E-2],"categories":[],"categories_nodes":[],"categories_segments":[],"categories_sizes":[],"default_left":[0,0,0,0,0,0,0,0,0,0,0],"id":38,"left_children":[1,-1,3,5,-1,7,9,-1,-1,-1,-1],"loss_changes":[2.3158712E1,0E0,1.5719599E1,3.1069646E0,0E0,2.3801262E0,2.3197722E0,0E0,0E0,0E0,0E0],"parents":[2147483647,0,0,2,2,3,3,5,5,6,6],"right_children":[2,-1,4,6,-1,8,10,-1,-1,-1,-1],"split_conditions":[7E1,9.7620174E-2,5E0,4E0,9.684375E-2,3.76E0,2.4E1,-1.770213E-2,2.4529306E-2,-8.189598E-3,-6.844194E-2],"split_indices":[6,0,8,8,0,4,0,0,0,0,0],"split_type":[0,0,0,0,0,0,0,0,0,0,0],"sum_hessian":[1.9548927E2,2.0841373E1,1.7464789E2,1.6319026E2,1.1457633E1,1.3428525E2,2.8905018E1,1.2016719E2,1.411805E1,9.809353E0,1.9095665E1],"tree_param":{"num_deleted":"0","num_feature":"12","num_nodes":"11","size_leaf_vector":"1"}},{"base_weights":[1.740456E-2,9.6924126E-2,-9.627946E-2,-1.7055549E-1,9.534352E-2,-3.3347833E-1,-8.4508896E-2,2.354835E-2,-4.4579227E-2,-3.0922086E-3,-6.715729E-2],"categories":[],"categories_nodes":[],"categories_segments":[],"categories_sizes":[],"default_left":[0,0,0,0,0,0,0,0,0,0,0],"id":39,"left_children":[1,-1,3,5,-1,7,9,-1,-1,-1,-1],"loss_changes":[2.0058348E1,0E0,1.3084291E1,2.1535263E0,0E0,3.5203338E0,3.2251337E0,0E0,0E0,0E0,0E0],"parents":[2147483647,0,0,2,2,3,3,5,5,6,6],"right_children":[2,-1,4,6,-1,8,10,-1,-1,-1,-1],"split_conditions":[7E1,9.6924126E-2,5E0,2.17E0,9.534352E-2,1.17E0,1.40813E5,2.354835E-2,-4.4579227E-2,-3.0922086E-3,-6.715729E-2],"split_indices":[6,0,8,4,0,4,5,0,0,0,0],"split_type":[0,0,0,0,0,0,0,0,0,0,0],"sum_hessian":[1.8350497E2,1.877582E1,1.6472916E2,1.5462563E2,1.0103524E1,5.2446507E1,1.0217912E2,8.465446E0,4.3981056E1,9.459704E1,7.5820823E0],"tree_param":{"num_deleted":"0","num_feature":"12","num_nodes":"11","size_leaf_vector":"1"}},{"base_weights":[4.2610005E-3,9.631996E-2,-1.0037962E-1,-1.6803733E-1,9.428E-2,-2.7252337E-1,-6.931853E-2,7.000705E-2,-2.9652163E-2,-4.137666E-2,9.125563E-3],"categories":[],"categories_nodes":[],"categories_segments":[],"categories_sizes":[],"default_left":[0,0,0,0,0,0,0,0,0,0,0],"id":40,"left_children":[1,-1,3,5,-1,7,9,-1,-1,-1,-1],"loss_changes":[1.8642788E1,0E0,1.1983742E1,1.6128063E0,0E0,1.993361E0,4.610822E0,0E0,0E0,0E0,0E0],"parents":[2147483647,0,0,2,2,3,3,5,5,6,6],"right_children":[2,-1,4,6,-1,8,10,-1,-1,-1,-1],"split_conditions":[7E1,9.631996E-2,5E0,2E0,9.428E-2,6.580263E3,1E0,7.000705E-2,-2.9652163E-2,-4.137666E-2,9.125563E-3],"split_indices":[6,0,8,2,0,9,1,0,0,0,0],"split_type":[0,0,0,0,0,0,0,0,0,0,0],"sum_hessian":[1.8382538E2,1.7278492E1,1.6654689E2,1.5719086E2,9.35604E0,7.550946E1,8.168139E1,1.13991E0,7.436955E1,2.5469627E1,5.621176E1],"tree_param":{"num_deleted":"0","num_feature":"12","num_nodes":"11","size_leaf_vector":"1"}},{"base_weights":[-2.4113434E-3,9.55915E-2,-9.698404E-2,-1.5925546E-1,9.330761E-2,-9.211172E-2,-4.330033E-1,-2.1620493E-2,2.9890452E-2,-6.533307E-2,1.306381E-2],"categories":[],"categories_nodes":[],"categories_segments":[],"categories_sizes":[],"default_left":[0,0,0,0,0,0,0,0,0,0,0],"id":41,"left_children":[1,-1,3,5,-1,7,9,-1,-1,-1,-1],"loss_changes":[1.6749596E1,0E0,1.0936657E1,2.890935E0,0E0,6.339383E0,3.9520545E0,0E0,0E0,0E0,0E0],"parents":[2147483647,0,0,2,2,3,3,5,5,6,6],"right_children":[2,-1,4,6,-1,8,10,-1,-1,-1,-1],"split_conditions":[7E1,9.55915E-2,5E0,9.5E1,9.330761E-2,8.9E1,2E0,-2.1620493E-2,2.9890452E-2,-6.533307E-2,1.306381E-2],"split_indices":[6,0,8,6,0,6,1,0,0,0,0],"split_type":[0,0,0,0,0,0,0,0,0,0,0],"sum_hessian":[1.8278693E2,1.5600081E1,1.6718684E2,1.5845308E2,8.733756E0,1.283166E2,3.0136482E1,9.774367E1,3.0572933E1,2.155249E1,8.583992E0],"tree_param":{"num_deleted":"0","num_feature":"12","num_nodes":"11","size_leaf_vector":"1"}},{"base_weights":[8.050013E-3,9.496855E-2,-8.161996E-2,-1.3919666E-1,9.201324E-2,-8.5590454E-4,-2.4082127E-1,4.3226678E-2,-1.684395E-2,-3.3095434E-2,-3.8505085E-3],"categories":[],"categories_nodes":[],"categories_segments":[],"categories_sizes":[],"default_left":[0,0,0,0,0,0,0,0,0,0,0],"id":42,"left_children":[1,-1,3,5,-1,7,9,-1,-1,-1,-1],"loss_changes":[1.4958104E1,0E0,9.462153E0,2.1635118E0,0E0,4.8765597E0,1.6051521E0,0E0,0E0,0E0,0E0],"parents":[2147483647,0,0,2,2,3,3,5,5,6,6],"right_children":[2,-1,4,6,-1,8,10,-1,-1,-1,-1],"split_conditions":[7E1,9.496855E-2,5E0,2.3925E4,9.201324E-2,2.3E1,4.3009617E4,4.3226678E-2,-1.684395E-2,-3.3095434E-2,-3.8505085E-3],"split_indices":[6,0,8,9,0,0,9,0,0,0,0],"split_type":[0,0,0,0,0,0,0,0,0,0,0],"sum_hessian":[1.7523424E2,1.4402362E1,1.6083188E2,1.5290459E2,7.9272943E0,6.518169E1,8.772289E1,1.7743612E1,4.7438076E1,6.024677E1,2.7476122E1],"tree_param":{"num_deleted":"0","num_feature":"12","num_nodes":"11","size_leaf_vector":"1"}}]},"name":"gbtree"},"learner_model_param":{"base_score":"5E-1","boost_from_average":"1","num_class":"0","num_feature":"12","num_target":"1"},"objective":{"name":"binary:logistic","reg_loss_param":{"scale_pos_weight":"0.790510297"}}},"version":[3,0,4]}